digraph Tree {
node [shape=box, style="rounded", color="black", fontname=helvetica] ;
edge [fontname=helvetica] ;
0 [label="temp_1 <= 62.5\nmse = 129.5\nsamples = 154\nvalue = 63.1"] ;
1 [label="average <= 49.2\nmse = 56.6\nsamples = 73\nvalue = 53.9"] ;
0 -> 1 [labeldistance=2.5, labelangle=45, headlabel="True"] ;
2 [label="average <= 46.9\nmse = 23.2\nsamples = 27\nvalue = 46.1"] ;
1 -> 2 ;
3 [label="mse = 14.4\nsamples = 15\nvalue = 43.1"] ;
2 -> 3 ;
4 [label="mse = 8.6\nsamples = 12\nvalue = 49.9"] ;
2 -> 4 ;
5 [label="temp_2 <= 57.5\nmse = 17.1\nsamples = 46\nvalue = 58.6"] ;
1 -> 5 ;
6 [label="mse = 14.7\nsamples = 19\nvalue = 55.6"] ;
5 -> 6 ;
7 [label="mse = 9.3\nsamples = 27\nvalue = 60.5"] ;
5 -> 7 ;
8 [label="temp_1 <= 67.5\nmse = 54.4\nsamples = 81\nvalue = 71.2"] ;
0 -> 8 [labeldistance=2.5, labelangle=-45, headlabel="False"] ;
9 [label="friend <= 52.5\nmse = 23.1\nsamples = 20\nvalue = 64.7"] ;
8 -> 9 ;
10 [label="mse = 2.5\nsamples = 4\nvalue = 57.6"] ;
9 -> 10 ;
11 [label="mse = 11.8\nsamples = 16\nvalue = 66.5"] ;
9 -> 11 ;
12 [label="friend <= 40.0\nmse = 44.3\nsamples = 61\nvalue = 73.6"] ;
8 -> 12 ;
13 [label="mse = 0.0\nsamples = 1\nvalue = 89.0"] ;
12 -> 13 ;
14 [label="mse = 38.2\nsamples = 60\nvalue = 73.1"] ;
12 -> 14 ;
}